{
  "W1": [
    [
      0.2663087129930549,
      -0.13325306216486543,
      -0.25054382913862167,
      0.02746395080458356,
      -0.2882043947293286,
      -0.11493678339118732,
      -0.06504822820247025,
      0.49660443817856426,
      -0.14122633039241378,
      -0.10904996094171773,
      0.19630054903876812,
      -0.21486742185759725,
      0.0513351925922278,
      0.31853161671274915,
      -0.1684716913912955,
      0.2711065384843443
    ],
    [
      0.36256637416318244,
      -0.25849888991572667,
      -0.01422202337905243,
      -0.3890948029157102,
      0.019861093202687214,
      0.12366265237770863,
      -0.2073153298774887,
      0.1608799848316857,
      -0.5139447622778802,
      -0.06728680051093663,
      -0.17903155503587245,
      0.1112280238538674,
      -0.19893573427514033,
      0.3291419445046757,
      -0.41456476884958676,
      0.27107730489129633
    ],
    [
      0.22766806835290623,
      0.24050645299831705,
      -0.020278105495466353,
      -0.05386371699979246,
      0.012478449876836871,
      -0.07184769324425219,
      -0.22390037658946585,
      -0.47307141912475903,
      -0.22522136382672192,
      -0.3927083323509275,
      0.3059893647354316,
      0.08810743187830236,
      -0.06713860247021376,
      -0.10132535977906458,
      -0.08257819107637455,
      -0.13906981676838087
    ],
    [
      0.20752900027390656,
      -0.0018815772150813622,
      -0.17350167917292722,
      -0.37152250978846,
      0.22821222178429748,
      0.04261405732464762,
      -0.36059704022806566,
      -0.04932758149561656,
      -0.2166778994146018,
      -0.038121958150876656,
      0.2661180001745863,
      0.09030830718163506,
      0.43285181735023925,
      0.15052712184526743,
      -0.18396683102585673,
      -0.08437933130519998
    ],
    [
      -0.09721119361203794,
      -0.1501958699481888,
      -0.47195876691563776,
      0.2671820462170328,
      -0.11739480651072003,
      -0.19646082893429362,
      0.08584180252415252,
      0.09902311936590084,
      -0.07279806081375946,
      0.0064692225154417944,
      0.13608901217546396,
      -0.11222907278425447,
      0.09470764998033347,
      -0.39619860239652294,
      -0.19441699688030606,
      0.09553919567056794
    ],
    [
      -0.37466788853649047,
      0.09415518469712597,
      -0.04486037492696526,
      0.03439982706146656,
      -0.19885490153227534,
      0.07026998458137225,
      0.4296429961058617,
      0.030831437804026342,
      0.04719777789883242,
      -0.13270238018615713,
      -0.31344776762265886,
      -0.10785802369881473,
      -0.13331192835766562,
      -0.5196329747595646,
      0.3119547348206179,
      0.10843743992631423
    ],
    [
      -0.11763894128892653,
      0.024458541329703532,
      0.2227571059322135,
      -0.0493689631006241,
      -0.24467998491359624,
      0.0016487310395286762,
      0.21763853621789844,
      0.07349792810016391,
      0.12477031278966984,
      0.06349478807076464,
      -0.14353028515115435,
      -0.07912439469179519,
      0.026658539875805645,
      0.24080011007434785,
      0.12335901384037921,
      -0.1352369176311879
    ],
    [
      0.22507903231626053,
      0.21454816512186511,
      -0.20522325036237435,
      0.15022191669910823,
      0.37107777471100084,
      0.6029581343134748,
      -0.09630443940430625,
      0.07764274951799074,
      2.582258918322142,
      0.1548662366400975,
      0.31151511224545253,
      0.2420854123042505,
      -0.07626110117799753,
      0.3136519949415874,
      -0.4446290405806368,
      0.08408778252196002
    ],
    [
      0.31975662779339553,
      -0.26623439997085246,
      -0.14787104625826822,
      0.14778934561727783,
      0.08398092600863963,
      -0.19640713689906703,
      -0.08248726683807504,
      -0.25597262920825775,
      0.21235306444120267,
      -0.053003861512053545,
      0.38150020350463293,
      0.009577043837608974,
      -0.04361818355043331,
      -0.07333658749093606,
      -0.040454184529520494,
      0.013699394165575767
    ],
    [
      0.49100680857138107,
      -0.052196126402999365,
      -0.074568913990793,
      0.03226418971618623,
      0.22382604290375496,
      -0.396379598883444,
      0.08702110635839078,
      -0.1940220762312122,
      0.10298450341376958,
      -0.09958167789871503,
      -0.5214426554728424,
      0.01978756189270602,
      0.11540993054563313,
      -0.21742602174161627,
      -0.10388528976590732,
      -0.3202979590845121
    ],
    [
      0.12455937996065233,
      0.21159510457629002,
      -0.1946423138686518,
      -0.056712717992323636,
      -0.02249145088202493,
      0.4597160274730499,
      0.15773816795426185,
      -0.21659805276567304,
      0.059734038301362924,
      -0.2892904452363962,
      0.1264964889564968,
      0.3227953050218557,
      0.3937014732254285,
      0.11603883025073673,
      -0.057093871259946555,
      -0.31847125750770044
    ],
    [
      -0.40406074479452136,
      -0.5391199713263406,
      0.1258226879751047,
      0.13240973107513565,
      0.16709569681170366,
      0.16090984524562507,
      0.07928739987062906,
      -0.020288599045303658,
      -0.13414820865409863,
      -0.04222411048933363,
      0.08255686505588966,
      -0.17892767730899456,
      0.07547068055578468,
      -0.1792635454390072,
      0.32654496197365274,
      -0.2552148703096442
    ],
    [
      -0.019521566832286556,
      0.05366862488103166,
      0.25139665238013625,
      -0.04417193871381129,
      -0.15612125759655981,
      -0.09860199276627238,
      0.22511379452909466,
      0.438083682189204,
      -0.28330453590704546,
      -0.23700598443162554,
      -0.035535547457648455,
      0.023293368820545758,
      0.1666057171233729,
      -0.19022467039963942,
      -0.22200577183064601,
      0.03194907908379741
    ],
    [
      -0.06075108397053544,
      0.2103169514720554,
      0.10646120215889479,
      0.14468440768916443,
      -0.031892579626984593,
      0.46122523453184844,
      -0.21090207517258547,
      0.1179401854654356,
      -0.29084740011537374,
      -0.2323695402164915,
      -0.14114282836515615,
      0.31701118265281414,
      0.0664342445542591,
      -0.18967107180144532,
      0.09033451855886326,
      0.008964545286105885
    ],
    [
      -0.08740368697722646,
      -0.31107455057876193,
      0.3121767385939102,
      0.005041320941196302,
      0.4737549199737631,
      0.2228008689807292,
      0.09697747309454635,
      -0.08560173879220057,
      -0.2308760723920101,
      -0.05054305117030983,
      -0.22757832059134697,
      0.15978431803934204,
      0.3324798244847665,
      -0.03005395361113321,
      0.15666893040272206,
      -0.1323099716122422
    ],
    [
      -0.01514706093171234,
      -0.18642553033396647,
      -0.4602964012322569,
      -0.09470036993976697,
      0.03280986706903913,
      0.21535754755574038,
      0.10198728690583785,
      0.18209106730089872,
      1.8177452035978925,
      0.09324003956325565,
      0.3669217926813255,
      0.09648660015124008,
      0.38332826890175303,
      0.42149547927522585,
      -0.1679728731193157,
      -0.12351965473849669
    ],
    [
      -0.15686926890547093,
      -0.33091723558832986,
      -0.11217671356812753,
      0.24877870206320335,
      -0.47277220846621076,
      -0.22412500750998224,
      -0.029140136550324117,
      -0.18755023110956381,
      -0.11321062230784527,
      -0.11012799014620853,
      -0.0543946483057074,
      -0.151944633621811,
      -0.17635540519463588,
      0.20134515924873864,
      0.21668343405794624,
      -0.2931978711080172
    ],
    [
      -0.5502829826213941,
      0.20350083738642316,
      -0.2710530918100866,
      -0.06242521302475096,
      -0.3285026446578011,
      0.21217396911439418,
      0.48493201323682444,
      0.038966953274686834,
      -0.0351892022985751,
      -0.07118405361918842,
      0.18459249615910667,
      0.11974203515053457,
      0.21888818595747236,
      -0.18367277595037898,
      -0.03706404764013151,
      -0.07879407289146162
    ],
    [
      -0.251169599319799,
      -0.0020836256668282536,
      -0.20154127012294304,
      0.27171715923009065,
      -0.1882543277195708,
      0.05968138067701664,
      -0.11177837127101024,
      0.05465235747328374,
      -0.1139472054326805,
      -0.26804216928846397,
      0.09315547988617277,
      -0.06702032873022015,
      0.073654140131031,
      -0.10865597177614474,
      -0.2604317269196313,
      0.21888818690565168
    ],
    [
      0.10612825801245195,
      -0.09542118628135192,
      0.005714638824061495,
      0.2716588101626864,
      -0.10976444936458256,
      -0.17684821465622405,
      0.07292386744246568,
      -0.12370242875011914,
      0.16594352345425364,
      -0.9981113954349237,
      -0.20798988173845712,
      0.05866080223037285,
      -0.19411210301975182,
      0.32734623979627026,
      0.39989029922018327,
      0.06523993962725244
    ],
    [
      0.06907515231218098,
      0.09243015548480299,
      -0.10899026766319708,
      0.09558668873742401,
      -0.2010611188536359,
      0.09013207308491009,
      0.20918377891566414,
      -0.08750290163505049,
      -0.12965101152695957,
      -0.25661070087447113,
      0.29950927905603425,
      -0.12980939602451927,
      -0.025093296578138986,
      0.04256179084142586,
      0.0940684212566233,
      0.14087322581592576
    ],
    [
      -0.10075327389076268,
      -0.2212673123484117,
      -0.294104990645532,
      -0.08333654910567845,
      -0.20769199709645206,
      -0.16729019139890908,
      0.2921156607011139,
      -0.10064286769721406,
      -0.10281135772585735,
      -3.588540618882355,
      -0.1179588397293845,
      -0.07086853465261461,
      0.17739335390669114,
      0.07334567056070161,
      0.20537336347926355,
      0.4111962104524656
    ],
    [
      0.07758366185565556,
      0.4997642919541439,
      -0.17276852159010433,
      0.5087388596565964,
      -0.0886265690378925,
      -0.09538565431508599,
      0.01619949918999701,
      -0.05920546140144864,
      0.014425847629902648,
      -0.11709348526909562,
      0.1521936963953816,
      -0.15483585071710565,
      0.17302899814298064,
      0.28748183921871273,
      -0.0007748638402166202,
      0.13535896542359271
    ],
    [
      0.019274205850659053,
      0.5354737401979486,
      -0.12361440818868101,
      0.29937294039198903,
      -0.37168157629758514,
      -0.24908471746779745,
      0.1421108147705266,
      0.26138775446690987,
      -0.29039114913283154,
      0.18785034077641105,
      -0.08211311343971635,
      -0.4412981189743452,
      0.13017013858368523,
      0.20819721244933084,
      -0.07153504006205343,
      -0.11353899981723367
    ],
    [
      -0.2145431561633795,
      -0.09135687560960655,
      0.3052204464267769,
      -0.0511012286483042,
      0.29636507461565653,
      0.1863137046191296,
      -0.09254183850712822,
      -0.1188862829679617,
      -0.20771670773122816,
      -0.19870756056484484,
      0.06710486768191977,
      -0.03272748130360658,
      -0.11046732747796179,
      -0.39396436179930167,
      0.027141041448346823,
      -0.11135747296384231
    ],
    [
      0.02249107966452547,
      0.03894129904039346,
      -0.5324970071817269,
      -0.4138132524321733,
      0.5063914017575085,
      -0.05980599370987261,
      -0.6057901601994479,
      -0.2945347714865179,
      0.5427317440041757,
      -0.16184077632584293,
      0.2883186088031959,
      0.07831127368040373,
      -0.14875356865463954,
      0.2256916239822784,
      -0.6164654905009167,
      -0.2610022392170149
    ],
    [
      -0.0683812341286271,
      -0.3035721378207308,
      -0.12173767969613414,
      0.13733249848767384,
      0.03393667940342455,
      0.30491614252011195,
      0.00036043799993257887,
      0.2221486587911553,
      -0.011800104689159941,
      -0.13326922799670915,
      0.33938367413641524,
      -0.12922209824681075,
      0.051432348510135256,
      0.18962662970936583,
      0.12046804974629444,
      -0.22420029670882022
    ],
    [
      0.24196537770763163,
      -0.21866239094057432,
      0.1767023971743772,
      0.08998972485933364,
      0.18050542266618602,
      -0.23722644834286016,
      0.10906899487355119,
      0.24105221955820055,
      0.04412365316207372,
      -0.17827926173391584,
      0.20994392296750103,
      0.04048528919275956,
      -0.3727240572593095,
      -0.17231812510613362,
      -0.13428357499193133,
      0.3359848066468282
    ],
    [
      0.29110519754659575,
      0.28511275323379304,
      0.05062560252667378,
      0.18870989177864858,
      -0.24529604675003672,
      0.011415010905098059,
      0.097274039616689,
      -0.23028234818512228,
      0.044326327712780236,
      0.36410674263724013,
      0.12164504707814568,
      0.2008747725935757,
      -0.530030572637071,
      0.3419044983389387,
      -0.04521234619780491,
      -0.16330282653380154
    ],
    [
      0.029919624221502163,
      -0.3484242725147366,
      0.23267551997581762,
      -0.1659194574083555,
      -0.14665485388336716,
      0.015632128691745267,
      0.1726089147023568,
      0.048573839864266576,
      -0.2955242839015415,
      0.09009748052180327,
      -0.15937493012550955,
      -0.4102261782809873,
      0.27621421358126946,
      0.16323774208014974,
      -0.13073287387174748,
      -0.024709181274463254
    ],
    [
      0.2838146456216187,
      0.6691936964998942,
      0.09502360723879157,
      -0.21914012732395802,
      -0.03428520546323004,
      0.08516538635804868,
      -0.4994408659538401,
      0.07082133264480825,
      0.09501809529366866,
      0.2882272461567074,
      0.25856380954698854,
      0.01606252008706237,
      0.330427225116236,
      0.43401662775577493,
      0.018239472227887663,
      0.0799876469081782
    ],
    [
      -0.33897350796356707,
      -0.3342564972679415,
      -0.1757087416593482,
      -0.15540572628778726,
      -0.22755380306931486,
      0.022268403985673844,
      -0.1293970021023046,
      0.24409103544404273,
      -0.09661140954027168,
      -0.5007807638893484,
      0.05546947888257466,
      0.035500514444964326,
      -0.21734274031515213,
      0.0629405805098987,
      -0.3006255982006748,
      0.10904668319241137
    ],
    [
      0.5626574295957084,
      -0.38863624493463456,
      -0.11015887018285687,
      -0.13846271525633833,
      -0.0947507143286018,
      0.2258205666909617,
      0.11507457435971163,
      0.1826194755103565,
      0.006604590523493893,
      -0.28591843537731815,
      -0.23953112372968569,
      0.16030646930707657,
      0.03372605047740018,
      0.2737453356395911,
      0.07051675118559954,
      -0.25296713719303837
    ],
    [
      -0.09385822143075649,
      0.1119411269421226,
      0.15512693357392437,
      0.14420824995775472,
      -0.22117607988104382,
      -0.23901493412954136,
      -0.06285706072166265,
      0.31883108234687646,
      -0.1442912633999429,
      0.09453578195532707,
      0.11303386523706559,
      0.18363312505972354,
      0.3393353483057042,
      0.3630652353588683,
      -0.17526122328610133,
      -0.4361107742387523
    ],
    [
      -0.13898351479676163,
      0.012380931124829214,
      -0.07836949542431375,
      0.4127348737649277,
      0.006613024093729632,
      0.1406010768747393,
      0.04512337805653496,
      -0.07312844043776263,
      -0.4146087732887673,
      -0.016591246944732723,
      0.7030631908154027,
      -0.26301318878789604,
      -0.3928102509500797,
      0.4174591943763209,
      0.15035092142754186,
      0.04495777472374101
    ],
    [
      0.3169385792374269,
      -0.18608830838099788,
      -0.020401759297898843,
      0.1874091495947621,
      0.4574985262836916,
      -0.23329179485574206,
      0.2578512683024452,
      0.087450061684574,
      0.03610585230795294,
      -0.004761914193441227,
      -0.2874429374045776,
      0.22395440503565525,
      -0.18068551733183383,
      -0.21668275956491667,
      0.1650045632762211,
      0.18490513780623663
    ],
    [
      0.04055435329619984,
      0.2228696467102182,
      0.31103476539948804,
      0.2506716190172471,
      -0.11195835344076431,
      0.23723169553618725,
      0.023624573307205878,
      0.3781815984185533,
      -0.02537588132420449,
      -0.08175746960360064,
      -0.11745340579947845,
      0.05942130754208274,
      0.08288873677349387,
      0.12697674868439587,
      0.04209853094406477,
      0.16485362914353113
    ],
    [
      -0.0027870524358282133,
      -0.2060356710454965,
      -0.2016936812310782,
      0.15256416876050058,
      0.1080248775519612,
      -0.36567637939953074,
      0.19448004943528857,
      0.4176015796051639,
      -0.15031163036682768,
      0.06449956924142042,
      -0.07530804930688544,
      0.17111253729562811,
      -0.2831043675514251,
      0.026587143267965095,
      0.1353958337440845,
      0.30246261592872703
    ],
    [
      0.11702455824573067,
      -0.08426083489824991,
      -0.3408774550108731,
      -0.19912841230624323,
      -0.09605062896607351,
      -0.12883822005333895,
      -0.01476164485737841,
      -0.06535664466078024,
      0.04091935946906061,
      0.2555106411428291,
      -0.07107456162358286,
      -0.2763364687627197,
      -0.1695634324051674,
      0.15186096706805086,
      0.10526299987030281,
      0.10627642588879596
    ],
    [
      0.28052422180614783,
      -0.04019209329508304,
      0.4425815336281265,
      0.17645477577135812,
      -0.5442293041132892,
      0.38834002732335077,
      -0.16541258636167866,
      -0.22301999806423023,
      0.11295938259424733,
      -0.37486564132022393,
      -0.14998875178214635,
      0.33581250757307013,
      0.11995696809560656,
      0.17517213616965877,
      -0.14167298359675728,
      -0.3317734064034025
    ],
    [
      0.15067704666808923,
      0.21032452067198523,
      0.18721327205157653,
      0.052546275471619955,
      -0.2144676671318861,
      0.4728718676001747,
      0.08916185285732617,
      -0.04799425324370181,
      -0.0510249978697476,
      0.03431446267058536,
      0.2216078522500482,
      0.012435782339842202,
      0.2091745877240887,
      -0.027298294860647186,
      -0.019988923925738086,
      0.12820437076075067
    ],
    [
      0.1301080120918968,
      -0.03658423498390584,
      -0.16157812790727957,
      0.07369915312052486,
      0.016897108502069304,
      -0.11966671112042501,
      -0.18167676035971497,
      0.08852549716032178,
      0.11863655104959979,
      -0.07764652273106386,
      -0.12507243773174567,
      -0.1790574390008505,
      0.08243922031741638,
      -0.17339015488533133,
      0.4833355113991963,
      -0.08848357006928312
    ],
    [
      -0.5247942828259127,
      0.003193329468125004,
      -0.019400115455195655,
      0.24721663803716032,
      0.056234536287294516,
      -0.23270056307261786,
      -0.076076628077186,
      0.06012026828500805,
      -0.48133491708761583,
      0.2907460286001987,
      -0.18832450562856712,
      0.27714705944021806,
      0.10866408849506151,
      0.07583220349509869,
      0.2521329728472444,
      0.11351359160718236
    ]
  ],
  "b1": [
    [
      -0.0017591204347613197,
      0.009700318437703487,
      -0.003649310124078038,
      0.007457245721385444,
      -0.005904365990743024,
      -0.052871042622794365,
      -0.014311768193014556,
      -0.01049289567251719,
      -0.014480635479668588,
      0.002051440820761608,
      -0.009069798049563241,
      -0.028460470486938762,
      0.024022879388343816,
      -0.05994955994487343,
      0.004241939469160556,
      -0.01009124570004034
    ]
  ],
  "W2": [
    [
      0.7094358285541309
    ],
    [
      -0.30750215878070186
    ],
    [
      -0.05186540293821065
    ],
    [
      -0.7486845699596962
    ],
    [
      0.2037911283421976
    ],
    [
      0.5402051820560673
    ],
    [
      -0.713674874265003
    ],
    [
      0.15164412595165463
    ],
    [
      0.22993936756181688
    ],
    [
      -0.050765994901546624
    ],
    [
      0.2220708453194583
    ],
    [
      0.3194681692159137
    ],
    [
      -0.3723886203218548
    ],
    [
      0.8027960774713028
    ],
    [
      -1.0393611347487928
    ],
    [
      0.3688480104073668
    ]
  ],
  "b2": [
    [
      -0.15007511359371406
    ]
  ],
  "input_size": 43,
  "hidden_size": 16,
  "output_size": 1,
  "feature_names": [
    "net_rating_diff",
    "net_rating_ratio",
    "offensive_rating_diff",
    "offensive_rating_ratio",
    "defensive_rating_diff",
    "defensive_rating_ratio",
    "efg_pct_diff",
    "efg_pct_ratio",
    "pace_diff",
    "pace_ratio",
    "offensive_tov_diff",
    "offensive_tov_ratio",
    "trb_diff",
    "trb_ratio",
    "ast_diff",
    "ast_ratio",
    "opp_offensive_tov_diff",
    "opp_offensive_tov_ratio",
    "opp_trb_diff",
    "opp_trb_ratio",
    "opp_ast_diff",
    "opp_ast_ratio",
    "opp_efg_pct_diff",
    "opp_efg_pct_ratio",
    "home_court_advantage",
    "net_rating_advantage",
    "away_momentum",
    "offensive_advantage",
    "defensive_advantage",
    "shooting_advantage",
    "pace_advantage",
    "turnover_advantage",
    "rebounding_advantage",
    "assists_advantage",
    "opp_turnover_advantage",
    "opp_rebounding_advantage",
    "opp_assists_advantage",
    "opp_shooting_advantage",
    "overall_efficiency",
    "away_team_strength",
    "close_game_indicator",
    "high_scoring_game",
    "defensive_battle"
  ],
  "model_performance": {
    "mean_accuracy": 81.84351227993915,
    "std_accuracy": 1.2826852918246314
  }
}